digraph Tree {
node [shape=box] ;
0 [label="Sex <= 0.5\ngini = 0.473\nsamples = 891\nvalue = [549, 342]"] ;
1 [label="Pclass <= 2.5\ngini = 0.3828\nsamples = 314\nvalue = [81, 233]"] ;
0 -> 1 [labeldistance=2.5, labelangle=45, headlabel="True"] ;
3 [label="gini = 0.1003\nsamples = 170\nvalue = [9, 161]"] ;
1 -> 3 ;
4 [label="Fare <= 23.35\ngini = 0.5\nsamples = 144\nvalue = [72, 72]"] ;
1 -> 4 ;
7 [label="Fare <= 7.8875\ngini = 0.4839\nsamples = 117\nvalue = [48, 69]"] ;
4 -> 7 ;
13 [label="Fare <= 6.9875\ngini = 0.4082\nsamples = 42\nvalue = [12, 30]"] ;
7 -> 13 ;
31 [label="gini = 0.0\nsamples = 1\nvalue = [1, 0]"] ;
13 -> 31 ;
32 [label="Fare <= 7.5229\ngini = 0.3926\nsamples = 41\nvalue = [11, 30]"] ;
13 -> 32 ;
33 [label="gini = 0.0\nsamples = 6\nvalue = [0, 6]"] ;
32 -> 33 ;
34 [label="gini = 0.431\nsamples = 35\nvalue = [11, 24]"] ;
32 -> 34 ;
14 [label="Fare <= 15.3729\ngini = 0.4992\nsamples = 75\nvalue = [36, 39]"] ;
7 -> 14 ;
15 [label="Fare <= 13.9083\ngini = 0.48\nsamples = 45\nvalue = [27, 18]"] ;
14 -> 15 ;
17 [label="Fare <= 10.825\ngini = 0.4995\nsamples = 33\nvalue = [17, 16]"] ;
15 -> 17 ;
19 [label="gini = 0.4352\nsamples = 25\nvalue = [17, 8]"] ;
17 -> 19 ;
20 [label="gini = 0.0\nsamples = 8\nvalue = [0, 8]"] ;
17 -> 20 ;
18 [label="gini = 0.2778\nsamples = 12\nvalue = [10, 2]"] ;
15 -> 18 ;
16 [label="Fare <= 17.6\ngini = 0.42\nsamples = 30\nvalue = [9, 21]"] ;
14 -> 16 ;
35 [label="gini = 0.2604\nsamples = 13\nvalue = [2, 11]"] ;
16 -> 35 ;
36 [label="Fare <= 18.6292\ngini = 0.4844\nsamples = 17\nvalue = [7, 10]"] ;
16 -> 36 ;
37 [label="gini = 0.0\nsamples = 3\nvalue = [3, 0]"] ;
36 -> 37 ;
38 [label="gini = 0.4082\nsamples = 14\nvalue = [4, 10]"] ;
36 -> 38 ;
8 [label="gini = 0.1975\nsamples = 27\nvalue = [24, 3]"] ;
4 -> 8 ;
2 [label="Fare <= 26.2687\ngini = 0.3064\nsamples = 577\nvalue = [468, 109]"] ;
0 -> 2 [labeldistance=2.5, labelangle=-45, headlabel="False"] ;
5 [label="Fare <= 7.9104\ngini = 0.2264\nsamples = 415\nvalue = [361, 54]"] ;
2 -> 5 ;
21 [label="gini = 0.1435\nsamples = 180\nvalue = [166, 14]"] ;
5 -> 21 ;
22 [label="Fare <= 7.9875\ngini = 0.2825\nsamples = 235\nvalue = [195, 40]"] ;
5 -> 22 ;
29 [label="gini = 0.4734\nsamples = 13\nvalue = [8, 5]"] ;
22 -> 29 ;
30 [label="gini = 0.2656\nsamples = 222\nvalue = [187, 35]"] ;
22 -> 30 ;
6 [label="Fare <= 26.4688\ngini = 0.4485\nsamples = 162\nvalue = [107, 55]"] ;
2 -> 6 ;
9 [label="gini = 0.0\nsamples = 4\nvalue = [0, 4]"] ;
6 -> 9 ;
10 [label="Pclass <= 1.5\ngini = 0.4372\nsamples = 158\nvalue = [107, 51]"] ;
6 -> 10 ;
11 [label="Fare <= 387.6646\ngini = 0.471\nsamples = 108\nvalue = [67, 41]"] ;
10 -> 11 ;
23 [label="Fare <= 152.5063\ngini = 0.4651\nsamples = 106\nvalue = [67, 39]"] ;
11 -> 23 ;
25 [label="Fare <= 116.6375\ngini = 0.4775\nsamples = 99\nvalue = [60, 39]"] ;
23 -> 25 ;
27 [label="gini = 0.4674\nsamples = 94\nvalue = [59, 35]"] ;
25 -> 27 ;
28 [label="gini = 0.32\nsamples = 5\nvalue = [1, 4]"] ;
25 -> 28 ;
26 [label="gini = 0.0\nsamples = 7\nvalue = [7, 0]"] ;
23 -> 26 ;
24 [label="gini = 0.0\nsamples = 2\nvalue = [0, 2]"] ;
11 -> 24 ;
12 [label="gini = 0.32\nsamples = 50\nvalue = [40, 10]"] ;
10 -> 12 ;
}